//Numpy array shape [100]
//Min -0.250000000000
//Max 0.375000000000
//Number of zeros 13

#ifndef B2_H_
#define B2_H_

#ifndef __SYNTHESIS__
bias2_t b2[100];
#else
bias2_t b2[100] = {0.18750, 0.06250, 0.12500, 0.12500, 0.18750, 0.06250, 0.25000, 0.06250, 0.00000, 0.18750, -0.18750, 0.12500, 0.12500, 0.00000, 0.18750, 0.25000, 0.06250, 0.31250, 0.25000, 0.00000, 0.00000, 0.00000, -0.18750, 0.18750, 0.00000, 0.06250, 0.12500, -0.18750, 0.12500, 0.37500, 0.31250, 0.12500, 0.18750, 0.31250, 0.12500, -0.12500, 0.18750, 0.06250, 0.25000, 0.18750, 0.12500, 0.12500, 0.00000, -0.06250, 0.18750, -0.18750, -0.06250, -0.25000, 0.18750, 0.12500, 0.12500, 0.00000, 0.06250, -0.06250, 0.37500, 0.12500, 0.12500, -0.06250, 0.00000, 0.06250, 0.25000, -0.12500, -0.06250, 0.18750, 0.00000, 0.00000, 0.18750, -0.06250, 0.12500, 0.18750, 0.18750, 0.12500, -0.18750, 0.25000, 0.18750, 0.12500, 0.18750, -0.12500, -0.12500, 0.12500, 0.06250, 0.18750, 0.12500, 0.00000, 0.18750, 0.00000, 0.06250, -0.06250, 0.12500, -0.06250, 0.06250, -0.12500, 0.18750, -0.25000, 0.25000, 0.18750, -0.12500, 0.12500, 0.31250, 0.18750};
#endif

#endif
